{
  "levels": [
    {
      "inputs": [
        0,
        0,
        0,
        0.4139876237898422,
        0.6828523873576566
      ],
      "outputs": [
        0,
        0,
        0,
        0,
        0,
        1
      ],
      "biases": [
        -0.21201760043168622,
        0.5072557510803761,
        -0.020749810827152826,
        -0.08594972118659533,
        0.27885321421637443,
        -0.07015136632668753
      ],
      "weights": [
        [
          -0.16958382445405235,
          -0.007054131391282248,
          -0.022456848921227623,
          -0.5848465775123624,
          0.08889259170008941,
          0.24697640259025472
        ],
        [
          -0.046630803353663985,
          -0.20686078248128364,
          0.3955608375105748,
          -0.09462626378535768,
          -0.3107326925320844,
          -0.410052962163058
        ],
        [
          -0.1892358467690412,
          0.7012564118603999,
          0.3365713889961139,
          -0.013074288815453798,
          0.11140283950016094,
          0.3333789903187835
        ],
        [
          0.06612690099444174,
          0.7903211331674509,
          -0.1540433798497641,
          0.23428255724577418,
          -0.5952495144888754,
          0.06488411641373973
        ],
        [
          -0.5063296438739238,
          0.22294029748632307,
          -0.1920727839861811,
          -0.45029867315770716,
          0.2133474661226451,
          0.29703334195691167
        ]
      ]
    },
    {
      "inputs": [
        0,
        0,
        0,
        0,
        0,
        1
      ],
      "outputs": [
        1,
        1,
        1,
        0
      ],
      "biases": [
        -0.11302931553125961,
        -0.13698602340497235,
        0.03816125584051122,
        0.4101438514380521
      ],
      "weights": [
        [
          0.7273988320520315,
          -0.20506163744532016,
          -0.18791918153676124,
          -0.10649622054673222
        ],
        [
          -0.40207933355876585,
          -0.03189075356255397,
          -0.40383903474178245,
          -0.40543934910254237
        ],
        [
          -0.17046144069422592,
          -0.14497813821646904,
          0.3003479015071435,
          0.3909288912532399
        ],
        [
          -0.026469926844991193,
          -0.1462734449661251,
          0.07844362567986937,
          -0.34030705270994205
        ],
        [
          -0.03872035910943139,
          -0.1232462252873867,
          0.010043603786424798,
          0.01859720196476511
        ],
        [
          0.12894755572827912,
          0.19413371381104721,
          0.34511636274499025,
          -0.3099193617299402
        ]
      ]
    }
  ]
}