const bestBrain = {
  "levels": [
    {
      "inputs": [
        0,
        0,
        0,
        0.2842568556011976,
        0.6126426015449917
      ],
      "outputs": [
        1,
        0,
        0,
        0,
        1,
        1
      ],
      "biases": [
        0.03483608408816856,
        0.04533498212782081,
        -0.04165796857754074,
        0.26909980412079487,
        -0.151368493035688,
        0.04668139119058824
      ],
      "weights": [
        [
          -0.13282736117478144,
          0.06711629995966824,
          -0.007803019790449015,
          -0.06726363726386583,
          -0.04104834909045727,
          -0.46103133062336277
        ],
        [
          -0.26505618956054156,
          -0.21206165583530545,
          0.42236818838838236,
          -0.133348856550591,
          -0.13993738276134493,
          -0.31448694557436746
        ],
        [
          0.17451163666261602,
          0.2971822873389763,
          -0.05175677149698242,
          0.23607856970055968,
          0.1265666978322954,
          -0.2310063399262297
        ],
        [
          -0.33722979064545056,
          0.29969280871811693,
          -0.24921748131676075,
          0.13333387252618248,
          -0.1288962890277887,
          0.1470353789802323
        ],
        [
          0.35435130159183287,
          -0.0864534022173786,
          -0.21817070777023967,
          0.02618035874285063,
          0.5582578705007893,
          0.20875226041709585
        ]
      ]
    },
    {
      "inputs": [
        1,
        0,
        0,
        0,
        1,
        1
      ],
      "outputs": [
        1,
        0,
        0,
        0
      ],
      "biases": [
        -0.10190316776227411,
        0.033007838668036346,
        -0.4198920711814774,
        0.4960084547264156
      ],
      "weights": [
        [
          -0.04311753949086995,
          0.2047610583212798,
          -0.248587848761519,
          -0.13335323809608368
        ],
        [
          0.051849066958019274,
          0.2717107909663024,
          -0.2461438081434592,
          -0.36013103262945867
        ],
        [
          0.318051350777331,
          0.10107557603969354,
          0.3058174662537504,
          -0.04113892219153065
        ],
        [
          -0.20458468102791902,
          0.07890567584246952,
          0.004201594630738829,
          0.004018720353543422
        ],
        [
          0.43747654021070626,
          -0.44810881037165085,
          -0.27859962934926635,
          -0.01959133465300216
        ],
        [
          -0.40551951482342236,
          0.2178415430685775,
          -0.07469476004940048,
          -0.17855974740406724
        ]
      ]
    }
  ]
}

